{"HiddenLayer":[0.8253469460455068,0.005237757202576507,0.5293109044873971,0.17513198167159755,0.001335504675109457,0.000026139148921668256,0.670910675205919,0.047154109807728974,0.09050846354558005,0.005383009335575427,0.9898011734323671,0.8817645226938654,0.10720219673033766,0.7033982260520812,0.7315280089388733,0.0037254617206461476,1],"InputLayer":[0.9,1,2,1],"OutputLayer":[0.9999773219157121,0.0005540379848069119,3.6252619383428384e-7,0.0000072852427265951265],"WeightHidden":[[1.2921392528007325,3.858809780643405,0.008408806071459303,-3.4854953676920637],[-7.198333922928017,1.2870714250993898,-0.9333641514137166,1.8115517073866834],[-3.604804764648159,7.754767302225711,-1.0385837090578525,-2.315815169218725],[-10.586440882683572,0.7600575215273166,4.414232258131789,-1.6103855611888125],[-4.579089183275312,-1.9259163977260703,-0.04326244739920051,-0.4834907042826145],[1.260307441033146,0.30420434696350773,-6.971244512274395,1.9519452381561218],[1.6604202525605747,3.216010548779295,-0.5633769658701324,-2.871290049959006],[1.8903413540220368,0.5685798361745299,-1.3282756645344875,-2.6193676748748618],[0.6554726435465832,2.760011637922903,-2.252062196104699,-1.1532390614590866],[-3.065559585636274,-2.0589057462284206,3.197510931228101,-6.79628723134806],[2.8675303404757155,1.8806574116325234,2.7433730464672097,-5.372930286063981],[0.8377387695423516,2.799307736149178,1.3873471597493323,-4.3186737380344615],[-13.179452277551741,0.48892043073525027,5.078125997363961,-0.9032900156393455],[7.280928107323894,2.9655965204842714,-3.3231512483460612,-2.008601602527152],[-0.12460798993618648,2.5797696783795123,1.331855311660367,-4.12889602309493],[-2.5426578954572,-2.837097783990592,3.707053177723877,-7.877511676873882],[0.10238759103793371,-0.33402851524105615,-0.017645117848081537,0.47073847277665726]],"WeightOutput":[[1.221374505567314,-4.714129470656181,-1.051575268625895,-8.176940661225643,-4.146992546751968,-9.1157394905352,-0.8161323399538779,-1.1693842254213085,-0.8239708060068465,-1.3971972267452,6.574844650317841,3.183857128002929,-10.56134542354164,5.204381277530024,2.771499812698203,-0.8407840067885577,-1.4781049610971768],[-2.814800541478159,4.134617599368126,5.061914961366194,4.9351589531070825,1.6973615021953807,-1.4264209592575856,-3.122757900252311,-2.7380036523874893,-1.2065745067610554,-5.080429548695389,-0.21268799009119277,-1.3415519945519463,6.518195331054611,-4.624621049207931,-0.3438731487208553,-7.2828421518054345,-2.1545135492989074],[-3.787700173789435,4.0152229555243215,-4.950930964246026,4.73717873123344,1.7262800142128945,-0.3557609591375164,-3.6468835932316397,-2.69841713498405,-1.5253387223218735,2.5260788551733215,-0.31525139600483015,-1.9357662207003663,6.371643984277433,-4.4351808696332435,-1.1655980813131026,3.3490236605013233,-1.9426595726001321],[-0.006440660190163756,-0.5632846353072721,1.24123385797563,-2.2720524613949933,-0.7842503397625664,5.8425484468786655,0.30614523892867146,-0.12292986740467075,1.953637338936895,-1.9558310322846129,-7.468162779921697,-2.1881158903556934,-1.638087971628112,2.546732231361167,-2.0718655853669605,-1.6518258457802042,-3.218052981048963]],"ErrOutput":[-0.000022678084287908185,0.0005540379848069119,3.6252619383428384e-7,0.0000072852427265951265],"ErrHidden":[-8.641802877557376e-7,0.0000012708346909616694,0.0000015535408402402928,0.0000015181142222952753,5.228130621270124e-7,-4.3261179195453116e-7,-9.57594473106427e-7,-8.393960110113983e-7,-3.696390837264327e-7,-0.0000015580006316697354,-6.904543977128929e-8,-4.133321936333641e-7,0.0000020050253175360945,-0.0000014213276809740365,-1.0703662385816122e-7,-0.0000022339441130757757,0],"LastChangeHidden":[[-0.000006501045920240749,-0.000001559155915306556,-0.000015865085289778364,-0.000015830994408539408],[-6.174194753280077e-7,0.00000209880595366157,-0.000002068519003890965,-0.0000020698234724072984],[-0.000009801556295664312,9.337594131198047e-7,-0.000024756513276261132,-0.000024827279149604363],[-0.0000028251434712418157,0.0000023269459700496342,-0.000007646380038398669,-0.00000769884424529725],[3.118304500054053e-7,6.025601362411221e-8,7.644912106067614e-7,7.643484510118226e-7],[0.00000148351518510694,4.558429506090434e-8,0.0000036975064711581805,0.0000036974635772279794],[-0.000004479499128886671,-0.0000017067133838592165,-0.000010774691683602652,-0.000010718375403983049],[5.2083453078756944e-9,-4.5825625676282215e-7,1.275377106290654e-7,1.3706540954252012e-7],[-0.0000018748949405519513,-5.907523544539078e-7,-0.000004539802325683176,-0.000004531712365538104],[0.000007688904287367358,-9.735913557327995e-9,0.00001922512324073932,0.00001922646894069836],[-0.000002240059877294779,-0.0000011666925737875819,-0.000005308460614827125,-0.000005308505019205496],[-0.000005481305490775475,-0.0000013778989992710824,-0.000013359130961119403,-0.000013347928420043377],[-0.000002304708263264028,0.0000026390206213665508,-0.000006423356709589625,-0.0000064689113711332254],[6.727224257617485e-7,-0.00000263089336919078,0.000002340906750895715,0.0000024132183957613127],[-0.00000571432784409663,-6.942264594620231e-7,-0.00001411328281116412,-0.000014106678272391018],[0.000007517363980335048,-5.530085720939093e-9,0.000018795089502685434,0.000018796607774166675],[0,0,0,0]],"LastChangeOutput":[[-4.879546076505455e-7,-1.099832130937719e-7,-6.261475769733439e-7,-6.755600588777293e-8,8.725613566428225e-9,-9.294967192511489e-9,-4.2714391716438354e-7,-4.777328678254773e-8,-2.776225302962581e-7,8.67642642908644e-10,-4.162077869565963e-7,-3.7265389431738916e-7,-4.196895773914105e-8,-5.140675574833157e-7,-2.8024221976814885e-7,7.85850677205391e-10,-5.053865334035838e-7],[-0.000013769389916359845,-0.00003747596598394087,-2.4339119672352904e-7,-0.00006106936816459477,-0.000027545345479645564,-0.0000034143594279163687,-0.000017100580768940777,-0.000012393512945273286,-0.000012125082409071725,-0.000002549324729542539,-0.00005725873371692271,-0.000020591454549473517,-0.0000794112975476678,-0.000024089595075135045,-0.000016321029327579907,-0.0000017787968521959213,-0.0003164475347583051],[0.000015629732558510603,0.00003785230572380806,0.0000026023476917292106,0.00006129017250009048,0.000027490844492934965,0.000003446143940072538,0.000018719958478087532,0.00001256372682415274,0.000013147905525226196,0.0000025447812899303907,0.000058833271796865766,0.000022025686747731145,0.0000795177567603029,0.000026023731998119506,0.00001740505449220873,0.0000017750161855703267,0.00031814144322613773],[2.7536684147284162e-8,1.1619888684631226e-8,3.256158783172271e-8,1.3242665719931664e-8,3.899054708303278e-9,9.249638361416507e-10,2.4874205617909953e-8,4.403269784004164e-9,1.626525950520897e-8,3.594342525275958e-10,3.072037086214249e-8,2.2661490817580064e-8,1.4816531233356161e-8,3.0365503864037186e-8,1.7186964386453222e-8,2.413152096056176e-10,7.618992086484074e-8]],"Regression":false,"Rate1":0.25,"Rate2":0.1}
938882]],"Regression":false,"Rate1":0.25,"Rate2":0.1}
